svm_type c_svc
kernel_type polynomial
degree 2
gamma 0.33333333333333331
coef0 0
nr_class 2
total_sv 255
rho 2.2702905380889757
label 1 0
probA -1.5575687144680028
probB 2.7031445589384475
nr_sv 44 211
SV
5 1:-0.23431803 2:-0.27635699 3:1.1309592 
5 1:-0.88256438 2:1.0238101 3:1.1929519 
5 1:-2.220115 2:0.78647137 3:1.2212658 
5 1:-2.1572935 2:2.2268363 3:1.4808595 
5 1:-2.0022973 2:0.66048456 3:1.5912839 
5 1:-2.1568683 2:1.8446337 3:1.8125793 
2.0718841054632131 1:-0.54036714 2:2.3926973 3:3.6550697 
5 1:0.16383676 2:0.086119051 3:-0.27072754 
5 1:-1.8729516 2:0.42972198 3:0.73098528 
5 1:-1.5193472 2:0.77586724 3:-0.272219 
2.9957566619090299 1:-2.7967181 2:2.8501909 3:0.59388832 
5 1:-2.8260664 2:1.9250067 3:-0.43256434 
5 1:0.44222532 2:2.0722115 3:1.1837129 
5 1:-2.9638967 2:2.6245213 3:0.028803583 
5 1:-1.1987855 2:-0.039866375 3:0.50417833 
5 1:-1.4011852 2:0.82337677 3:1.7860548 
0.35394890941102702 1:-1.8774303 2:1.2140641 3:2.4661906 
5 1:-1.1682546 2:3.0521043 3:1.9839462 
5 1:-0.91481609 2:2.5507244 3:2.5126718 
5 1:-2.5574443 2:1.2569086 3:0.45470449 
3.5016850150511014 1:-1.1509421 2:4.8604618 3:1.8879776 
5 1:-2.3430038 2:2.0297838 3:1.471326 
5 1:-2.3353891 2:1.1686746 3:0.72622199 
5 1:-0.019768708 2:-0.5998087 3:0.0022775043 
5 1:0.19060976 2:0.87809928 3:0.44576356 
5 1:-1.9826999 2:0.67321008 3:1.7416429 
5 1:-1.6599996 2:0.67109008 3:1.6698226 
5 1:-1.9938232 2:4.1758122 3:0.70356901 
5 1:-2.2409301 2:0.66599988 3:1.1071098 
5 1:-1.2320708 2:0.4155101 3:0.76958455 
5 1:-2.248757 2:0.75635329 3:0.41089195 
5 1:-0.86829386 2:0.98838981 3:1.0598764 
5 1:0.48779332 2:-0.23711871 3:-0.60393818 
5 1:-2.2750726 2:2.9201882 3:0.89535787 
5 1:-1.7339108 2:1.6060221 3:0.07574467 
5 1:-1.8951419 2:1.7487649 3:2.3193984 
5 1:-0.58183458 2:0.2042595 3:-0.026632466 
5 1:-1.2704164 2:0.31879296 3:2.648436 
5 1:-1.6549863 2:1.6832263 3:0.59910491 
5 1:-1.8834881 2:0.40638982 3:0.37691523 
5 1:-1.2373372 2:1.6159908 3:2.8144448 
5 1:-0.47376811 2:0.98923808 3:1.1674693 
5 1:-1.9962082 2:1.1404648 3:0.81965536 
5 1:-1.2293329 2:2.1875978 3:1.4403262 
-1 1:1.3285387 2:-1.2017453 3:-1.2101538 
-1 1:1.324825 2:-1.2110776 3:-1.2158166 
-1 1:1.3237065 2:-1.207684 3:-1.2131343 
-1 1:1.325095 2:-1.1864741 3:-1.2161147 
-1 1:1.3528609 2:-1.1775659 3:-1.2074714 
-1 1:1.6132719 2:-1.2025937 3:-1.1663417 
-1 1:1.5988197 2:-1.1979276 3:-1.195848 
-1 1:1.628844 2:-1.2004727 3:-1.2077695 
-1 1:1.579357 2:-1.1792627 3:-1.2009146 
-1 1:1.4070479 2:-1.180111 3:-1.1535261 
-1 1:1.3419592 2:-1.1932614 3:-1.195848 
-1 1:1.4190532 2:-1.1949582 3:-1.1878007 
-1 1:1.6343226 2:-1.2013211 3:-1.2018087 
-1 1:1.5929345 2:-1.2000484 3:-1.211048 
-1 1:1.5336253 2:-1.1818079 3:-1.2083657 
-1 1:1.3254641 2:-1.2123502 3:-1.2080676 
-1 1:1.3243977 2:-1.2089566 3:-1.211644 
-1 1:1.3240484 2:-1.2106534 3:-1.2146245 
-1 1:1.3311796 2:-1.2017453 3:-1.2137303 
-1 1:1.3237344 2:-1.211926 3:-1.211644 
-1 1:1.3192173 2:-1.2127744 3:-1.2190951 
-1 1:1.3228213 2:-1.2064114 3:-1.2119421 
-1 1:1.3179655 2:-1.2165922 3:-1.2167107 
-1 1:1.3237964 2:-1.2157438 3:-1.2143264 
-1 1:1.328371 2:-1.2047146 3:-1.2107499 
-1 1:1.3347404 2:-1.1822321 3:-1.1925695 
-1 1:1.3304853 2:-1.1890194 3:-1.2030009 
-1 1:1.3317162 2:-1.1992001 3:-1.2015106 
-1 1:1.3237913 2:-1.218289 3:-1.2134323 
-1 1:1.32243 2:-1.2021695 3:-1.211644 
-1 1:1.3263787 2:-1.2153196 3:-1.2164127 
-1 1:1.329726 2:-1.2165922 3:-1.2158166 
-1 1:1.3270171 2:-1.2153196 3:-1.2089617 
-1 1:1.3298202 2:-1.211926 3:-1.2161147 
-1 1:1.3317743 2:-1.2059873 3:-1.2155186 
-1 1:1.3283918 2:-1.190292 3:-1.2047891 
-1 1:1.3241027 2:-1.1788385 3:-1.2098558 
-1 1:1.3231233 2:-1.2047146 3:-1.2149225 
-1 1:1.3246105 2:-1.1847772 3:-1.2164127 
-1 1:1.3276034 2:-1.2017453 3:-1.2050872 
-1 1:1.3209191 2:-1.2106534 3:-1.2140284 
-1 1:1.3220858 2:-1.2136228 3:-1.2095578 
-1 1:1.3195589 2:-1.209805 3:-1.2155186 
-1 1:1.3221737 2:-1.2144712 3:-1.2193931 
-1 1:1.3221347 2:-1.2093808 3:-1.2146245 
-1 1:1.3225657 2:-1.2017453 3:-1.2152205 
-1 1:1.3240435 2:-1.2047146 3:-1.2146245 
-0.31396873850901885 1:1.3192802 2:-1.2004727 3:-1.2155186 
-1 1:1.3272437 2:-1.1779902 3:-1.2161147 
-1 1:1.3234799 2:-1.209805 3:-1.2104519 
-1 1:1.3264464 2:-1.2123502 3:-1.2161147 
-1 1:1.319577 2:-1.2068356 3:-1.2190951 
-1 1:1.3230523 2:-1.2038663 3:-1.2143264 
-1 1:1.3226031 2:-1.1898677 3:-1.211644 
-1 1:1.322995 2:-1.2030178 3:-1.2202872 
-1 1:1.3197422 2:-1.2136228 3:-1.2131343 
-1 1:1.3255281 2:-1.2165922 3:-1.2083657 
-1 1:1.3256076 2:-1.1864741 3:-1.211048 
-1 1:1.3288491 2:-1.2025937 3:-1.2179029 
-1 1:1.3205415 2:-1.205563 3:-1.2190951 
-1 1:1.3221595 2:-1.2127744 3:-1.2101538 
-1 1:1.3194958 2:-1.2127744 3:-1.2143264 
-1 1:1.3260938 2:-1.211926 3:-1.2143264 
-1 1:1.3248223 2:-1.2042905 3:-1.2065773 
-1 1:1.3298684 2:-1.2136228 3:-1.2092597 
-1 1:1.3266049 2:-1.2106534 3:-1.2146245 
-1 1:1.3236937 2:-1.1924128 3:-1.2128362 
-1 1:1.3328723 2:-1.2102292 3:-1.2056832 
-1 1:1.3269602 2:-1.1975033 3:-1.2065773 
-1 1:1.3201742 2:-1.2153196 3:-1.2155186 
-1 1:1.3201561 2:-1.2131986 3:-1.2167107 
-1 1:1.3230303 2:-1.203442 3:-1.2101538 
-1 1:1.3174869 2:-1.2047146 3:-1.2202872 
-1 1:1.3322482 2:-1.2068356 3:-1.2030009 
-1 1:1.3253366 2:-1.2178648 3:-1.2074714 
-1 1:1.3245066 2:-1.190716 3:-1.2083657 
-1 1:1.3259276 2:-1.1924128 3:-1.2068754 
-1 1:1.3269308 2:-1.207684 3:-1.2065773 
-1 1:1.3253886 2:-1.2144712 3:-1.2155186 
-1 1:1.3295626 2:-1.214047 3:-1.2158166 
-1 1:1.3276255 2:-1.211926 3:-1.2128362 
-1 1:1.3275137 2:-1.2068356 3:-1.2179029 
-1 1:1.3260708 2:-1.1996241 3:-1.2074714 
-1 1:1.3239875 2:-1.2174406 3:-1.2128362 
-1 1:1.3328403 2:-1.2089566 3:-1.2053851 
-1 1:1.3286723 2:-1.2025937 3:-1.2053851 
-1 1:1.3230133 2:-1.203442 3:-1.2095578 
-1 1:1.3271117 2:-1.2064114 3:-1.2086636 
-1 1:1.3246467 2:-1.214047 3:-1.2131343 
-1 1:1.3300925 2:-1.1958065 3:-1.2053851 
-1 1:1.336253 2:-1.2085324 3:-1.2003184 
-1 1:1.3313617 2:-1.2093808 3:-1.2003184 
-1 1:1.3229987 2:-1.209805 3:-1.2089617 
-1 1:1.3278352 2:-1.2059873 3:-1.2009146 
-1 1:1.3304676 2:-1.205563 3:-1.1988283 
-1 1:1.3376949 2:-1.2089566 3:-1.2101538 
-1 1:1.3304359 2:-1.2013211 3:-1.2155186 
-1 1:1.3320678 2:-1.2136228 3:-1.2176049 
-1 1:1.3340724 2:-1.2102292 3:-1.218797 
-1 1:1.3309035 2:-1.2102292 3:-1.2125382 
-1 1:1.3351269 2:-1.214047 3:-1.2050872 
-1 1:1.3276445 2:-1.1992001 3:-1.2095578 
-1 1:1.3269746 2:-1.2021695 3:-1.2134323 
-1 1:1.3254853 2:-1.2021695 3:-1.2080676 
-1 1:1.3267889 2:-1.1979276 3:-1.2158166 
-1 1:1.3266105 2:-1.1885952 3:-1.2104519 
-1 1:1.3250073 2:-1.1661127 3:-1.211346 
-1 1:1.323798 2:-1.2047146 3:-1.2170088 
-1 1:1.3194556 2:-1.2030178 3:-1.2176049 
-1 1:1.3374435 2:-1.1987759 3:-1.1901851 
-1 1:1.3451614 2:-1.1924128 3:-1.1928674 
-1 1:1.3487476 2:-1.1728997 3:-1.1967421 
-1 1:1.3213179 2:-1.2148954 3:-1.2134323 
-1 1:1.3242881 2:-1.207684 3:-1.2071735 
-1 1:0.3958791 2:0.81022614 3:6.7391968 
-1 1:-2.3380284 2:1.0520194 3:0.53606897 
-1 1:-2.7327699 2:1.5283928 3:0.93812998 
-1 1:-1.0984397 2:3.2981403 3:1.1798476 
-1 1:-1.7486675 2:-0.055562109 3:0.26514884 
-1 1:-1.8778963 2:0.88403693 3:0.39539368 
-1 1:-3.1118056 2:0.88149183 3:0.0046611033 
-1 1:-2.7158741 2:3.2799134 3:0.85854003 
-1 1:-3.2392613 2:5.2863777 3:1.6376314 
-1 1:-1.1138836 2:2.0323401 3:1.3404916 
-1 1:-1.2828059 2:1.570387 3:1.4689444 
-1 1:-1.5903663 2:0.60873226 3:0.69939527 
-1 1:-2.2932085 2:2.3275832 3:1.6149862 
-1 1:-1.7792622 2:0.85095058 3:0.3196905 
-1 1:-1.7396927 2:5.9366574 3:0.93604116 
-1 1:1.3137782 2:2.552836 3:-0.85310069 
-1 1:-1.0553689 2:3.4563757 3:1.9347711 
-1 1:0.071327672 2:3.8411143 3:1.5374851 
-1 1:-0.96688724 2:3.0219854 3:3.3904062 
-1 1:-1.0702563 2:3.1352648 3:2.4092654 
-1 1:-1.3828347 2:2.5655616 3:1.7949957 
-1 1:-3.1597626 2:3.1446005 3:1.784864 
-1 1:-1.6586874 2:2.2329754 3:1.2257431 
-1 1:0.76497469 2:0.21465236 3:3.7283853 
-1 1:-1.3746503 2:1.5950045 3:1.1390082 
-1 1:-3.4579998 2:0.80768103 3:1.0975832 
-1 1:-3.4055533 2:0.44541494 3:0.59329291 
-1 1:-3.2334643 2:1.8083653 3:-0.37057125 
-1 1:-3.2334643 2:1.3103557 3:-0.20813904 
-1 1:-3.3707448 2:0.28549294 3:0.35962798 
-1 1:-3.6574814 2:0.81319635 3:1.3461529 
-1 1:-3.6188084 2:0.3733018 3:1.0188912 
-1 1:-2.4493483 2:2.4192181 3:1.0358751 
-1 1:-3.4731802 2:0.24689127 3:0.036551744 
-1 1:-2.1800892 2:1.6064519 3:-0.64626053 
-1 1:-2.0688919 2:3.3011133 3:-0.2626807 
-1 1:-2.2471614 2:1.2187292 3:-0.56668229 
-1 1:-2.3160373 2:0.2061696 3:0.11702407 
-1 1:-2.3160373 2:0.80683359 3:0.11702407 
-1 1:-2.6801994 2:1.7108123 3:-0.61377447 
-1 1:1.6410836 2:-1.1915645 3:-1.1526318 
-1 1:1.6340637 2:-1.200897 3:-1.1904832 
-1 1:1.389116 2:-1.1987759 3:-1.1436907 
-1 1:1.3263469 2:-1.1975033 3:-1.2125382 
-1 1:1.3248402 2:-1.2123502 3:-1.2140284 
-1 1:1.328497 2:-1.2115018 3:-1.1988283 
-1 1:1.3203211 2:-1.2059873 3:-1.2170088 
-1 1:1.3207529 2:-1.2089566 3:-1.2164127 
-1 1:1.3277854 2:-1.1941096 3:-1.2077695 
-1 1:1.3242875 2:-1.2081082 3:-1.2095578 
-1 1:1.3361398 2:-1.1822321 3:-1.1943577 
-1 1:1.3264808 2:-1.1992001 3:-1.2083657 
-1 1:1.3258074 2:-1.2064114 3:-1.2047891 
-1 1:1.321451 2:-1.2106534 3:-1.2128362 
-1 1:1.3317489 2:-1.2115018 3:-1.1991262 
-1 1:1.327372 2:-1.2021695 3:-1.2018087 
-1 1:1.3259155 2:-1.2081082 3:-1.2050872 
-1 1:1.3282572 2:-1.2123502 3:-1.2095578 
-1 1:-1.5079181 2:2.8149873 3:1.8081143 
-1 1:1.3294135 2:-1.2042905 3:-1.2083657 
-1 1:1.3302405 2:-1.1589014 3:-1.2047891 
-1 1:-2.1309447 2:3.8682603 3:1.4617799 
-1 1:-2.4396425 2:8.0572347 3:4.2085409 
-1 1:-2.2606539 2:1.3226589 3:1.9726236 
-1 1:-1.8884922 2:2.7661969 3:1.6623653 
-1 1:1.335134 2:-1.1966548 3:-1.2018087 
-1 1:1.3566923 2:-1.1470238 3:-1.1922714 
-1 1:1.346103 2:-1.2093808 3:-1.1788596 
-1 1:-1.4394896 2:0.28634316 3:2.154722 
-1 1:-1.4322448 2:0.53110381 3:1.3434589 
-1 1:-0.88802204 2:1.9597935 3:1.6927606 
-1 1:-2.2571363 2:-0.45600477 3:-0.38368592 
-1 1:-2.3678674 2:1.6734693 3:1.3130637 
-1 1:-1.858752 2:0.62442799 3:0.62518355 
-1 1:-1.5725156 2:0.74405066 3:1.9127116 
-1 1:-1.4459573 2:0.2944008 3:1.70707 
-1 1:-1.1970601 2:0.22525788 3:1.5520873 
-1 1:-1.6507647 2:0.9128833 3:0.87882307 
-1 1:-1.9596709 2:1.6989203 3:0.82605593 
-1 1:-1.5659778 2:0.82549676 3:0.73426492 
-1 1:-1.6064377 2:-0.35377272 3:0.13252235 
-1 1:1.3361705 2:-1.1860501 3:-1.1907811 
-1 1:1.3456359 2:-1.1661127 3:-1.1821379 
-1 1:-3.4673437 2:3.2362076 3:-0.83313195 
-1 1:1.2483736 2:1.4087701 3:-1.0003333 
-1 1:-3.6457802 2:3.1976142 3:-0.50200887 
-1 1:-2.1072521 2:-0.43224861 3:-1.0030156 
-1 1:-2.4421565 2:1.5182124 3:-0.83074835 
-1 1:-3.0128853 2:2.7500816 3:0.38198228 
-1 1:1.3725878 2:1.3701685 3:-0.82866148 
-0.098606451026767544 1:-1.8635657 2:0.15399219 3:-0.78991677 
-1 1:-2.8198245 2:2.0166415 3:-0.31454008 
-1 1:1.2389277 2:2.1277815 3:-1.0274548 
-1 1:-2.6904628 2:6.5407306 3:0.010324347 
-1 1:-2.4491466 2:1.382894 3:-0.96099124 
-1 1:1.3562589 2:-1.1818079 3:-1.1633613 
-0.51069950229858285 1:1.23849 2:1.2225469 3:-0.91002595 
