svm_type c_svc
kernel_type rbf
gamma 0.5
nr_class 2
total_sv 24
rho -0.065609123895993007
label 1 -1
nr_sv 12 12
SV
0.49004948186584768 1:0.32985661 2:0.84380428 
1 1:0.31707712 2:0.60575722 
1 1:0.40959717 2:0.45655996 
1 1:0.43371012 2:0.86233633 
1 1:0.51994082 2:0.53397237 
1 1:0.25371967 2:0.31993569 
1 1:0.8445618 2:0.88268087 
1 1:0.015375976 2:0.21296961 
1 1:0.56199795 2:0.98721123 
1 1:0.022982942 2:0.25006476 
1 1:0.38158355 2:0.78400753 
0.54685330497150264 1:0.052296661 2:0.44093452 
-1 1:0.27777413 2:0.073853145 
-1 1:0.52631262 2:0.23553025 
-1 1:0.79813933 2:0.7330214 
-1 1:0.65646351 2:0.3423686 
-1 1:0.83350373 2:0.80971379 
-1 1:0.62170937 2:0.25004944 
-1 1:0.8925165 2:0.63346095 
-1 1:0.66292375 2:0.34508392 
-1 1:0.76950938 2:0.66138426 
-1 1:0.57406613 2:0.3261207 
-0.036902786837350439 1:0.95073197 2:0.61269798 
-1 1:0.34769657 2:0.073564292 
