svm_type c_svc
kernel_type rbf
gamma 0.001
nr_class 2
total_sv 240
rho 19.668854521566903
label 1 0
probA -1.7597040962761001
probB 2.5190296749484884
nr_sv 52 188
SV
50000 1:-0.88410268 2:-0.78692928 3:0.038604587 4:0.7121922 5:0.12932366 6:0.093744278 7:0.49564755 8:0.089075072 
50000 1:-0.95721458 2:-0.81885221 3:1.7029167 4:0.90987852 5:-0.21277039 6:3.3712821 7:1.015849 8:0.41223828 
50000 1:-0.99085895 2:-0.58464704 3:0.65974697 4:0.71301841 5:-0.11092973 6:-0.39397725 7:0.29969296 8:-0.32599037 
50000 1:-1.0478186 2:-0.73902148 3:0.81067986 4:0.27753049 5:0.99637618 6:1.5131471 7:0.2765167 8:1.2482961 
50000 1:-0.63004699 2:-0.26259801 3:0.9772821 4:0.33336324 5:-0.1784029 6:0.50701442 7:-0.5518302 8:-0.47890645 
50000 1:-0.59300108 2:-0.54804981 3:2.0610902 4:1.3275851 5:0.22517223 6:1.9838763 7:0.24950757 8:0.51285157 
36042.866732430062 1:-1.1809755 2:-2.0666408 3:0.48124136 4:2.2783806 5:0.16242809 6:0.18318705 7:0.93567871 8:-0.17258004 
50000 1:-1.3135736 2:-1.3768281 3:1.6939187 4:1.1623628 5:0.67982364 6:1.774845 7:-0.5724589 8:1.0193924 
50000 1:-1.407137 2:-1.7723386 3:-0.23307147 4:2.1623743 5:0.09117195 6:-0.030800439 7:2.0497663 8:-0.31597858 
454.81385322056343 1:-0.24483953 2:-2.8389957 3:3.6952073 4:2.3515829 5:0.54803234 6:0.18894691 7:-0.2093907 8:-0.23969985 
50000 1:-1.4801146 2:-1.2067889 3:1.4091795 4:2.6712851 5:1.0159251 6:0.76922967 7:2.9677176 8:0.60520304 
50000 1:-1.492139 2:-1.529503 3:5.8900936 4:1.3846558 5:1.4403088 6:0.44977137 7:0.064460337 8:0.56739926 
50000 1:-0.18178689 2:-0.1303715 3:0.53493811 4:-0.12900857 5:0.06815557 6:1.4028586 7:-0.28989763 8:1.6643043 
50000 1:-1.6618357 2:-1.2396644 3:1.1389548 4:0.67207597 5:1.2426213 6:2.9380241 7:-0.037510728 8:4.7408185 
876.44938040324757 1:-1.7198592 2:-4.7593076 3:6.7594146 4:4.6688136 5:6.286045 6:14.060513 7:-0.396052 8:6.351336 
50000 1:-1.8196693 2:-2.0240269 3:1.3287802 4:2.707459 5:2.0355828 6:0.54893736 7:1.267534 8:0.1696639 
30842.315375260474 1:-2.0582106 2:-2.5567008 3:2.2120204 4:2.1797442 5:0.62811563 6:3.4070238 7:0.8554312 8:0.99968297 
45798.181135673993 1:-2.2886967 2:-3.3916672 3:0.6908039 4:0.87224376 5:0.76810573 6:-0.35363343 7:-0.017064582 8:-0.20360334 
50000 1:-2.5155133 2:-1.8954698 3:0.80487373 4:1.4086429 5:0.0044677301 6:0.60553844 7:0.17653883 8:-0.46543806 
6883.0088349603802 1:-2.5577819 2:-2.3422995 3:3.853111 4:2.7076662 5:1.4623803 6:6.1476867 7:6.1672142 8:1.1225432e-06 
50000 1:-2.5961289 2:-1.8994598 3:1.02837 4:0.8681073 5:0.11292622 6:-0.074793017 7:-0.31617637 8:-0.54943832 
6849.1250531646619 1:-2.6146294 2:-2.0626457 3:1.2956914 4:4.3840711 5:2.6749968 6:-0.16599272 7:0.054367092 8:6.4768211 
50000 1:-2.7955747 2:-2.3053489 3:1.9862036 4:3.1874083 5:1.0134014 6:0.073156945 7:2.2329744 8:2.7758 
50000 1:-2.9590759 2:-2.2747422 3:1.9211878 4:0.33129366 5:0.061850488 6:0.358247 7:0.43840107 8:-0.14654021 
9950.0024246408539 1:-3.1467604 2:-3.8644154 3:3.1628893 4:1.5403656 5:0.50262904 6:8.0846167 7:0.43687805 8:0.22434753 
26531.440297590882 1:-3.1760246 2:-2.9261608 3:7.160257 4:4.9426011 5:1.3627494 6:0.73614204 7:1.0120448 8:-0.59312308 
16967.369477637629 1:-3.1765967 2:-2.6367135 3:0.58544213 4:4.2788167 5:0.97683143 6:-0.25651149 7:2.7747111 8:2.3233363 
4400.3937286838445 1:-3.2835277 2:-3.2691522 3:1.1630457 4:2.133838 5:-0.15254947 6:-0.39032828 7:0.057813422 8:0.83192822 
50000 1:-3.4483598 2:-3.1064814 3:1.4474954 4:1.7233662 5:0.036626526 6:-0.42970567 7:0.16668446 8:-0.30309313 
21806.80262143553 1:-3.6370896 2:-2.9840491 3:6.6883136 4:3.1216367 5:0.82927105 6:5.2385402 7:1.7806465 8:1.644056 
11576.602664966629 1:-3.9287314 2:-3.3117662 3:1.9356993 4:2.4036923 5:0.82801129 6:2.5412023 7:4.5994297 8:-0.3877452 
9822.5173968682593 1:-3.9683634 2:-3.3756871 3:1.8944834 4:1.2791963 5:1.1165043 6:3.6502719 7:0.97567262 8:0.48045806 
50000 1:-4.0882367 2:-3.2122776 3:2.4587363 4:1.7167565 5:0.38849398 6:0.87728482 7:-0.5994185 8:-0.6130568 
50000 1:-4.2879076 2:-3.3304099 3:2.2491726 4:2.5838018 5:1.4399945 6:0.17812193 7:0.26533529 8:0.041575028 
3118.685803237543 1:-4.3088301 2:-3.67406 3:10.898731 4:7.6688466 5:2.9114643 6:4.5454637 7:-0.40256567 8:3.5527293 
50000 1:-4.7671889 2:-3.7825162 3:3.4937606 4:0.10879425 5:0.015185952 6:3.286836 7:-0.51176636 8:-0.1122849 
50000 1:-4.8257617 2:-4.6302254 3:2.1632584 4:0.62947921 5:1.9126169 6:-0.2272916 7:0.03791449 8:-0.079734721 
50000 1:-4.9579054 2:-4.4771854 3:4.4510315 4:0.74900049 5:0.26363805 6:3.1960463 7:-0.3187174 8:0.59783937 
8555.175958035963 1:-5.1543318 2:-4.7513265 3:11.16284 4:3.1233162 5:1.8539744 6:10.520291 7:0.32455411 8:3.3135674 
18.359954028618237 1:-5.3751913 2:-4.7419957 3:2.0735697 4:1.629283 5:0.034419275 6:3.0257241 7:1.360942 8:0.18014723 
12131.192679109734 1:-5.4554585 2:-4.7140303 3:8.688437 4:5.5505442 5:7.4554667 6:0.25245114 7:-0.23131057 8:2.3187118 
37108.860512121675 1:-1.5123036 2:-1.2210209 3:2.2131812 4:2.3290429 5:2.6210814 6:4.1265561 7:3.8449502 8:8.0703902 
50000 1:-3.8620825 2:-3.861752 3:4.8480989 4:0.79738761 5:0.9509754 6:2.2502306 7:0.15593113 8:1.7704166 
50000 1:-2.3400476 2:-1.8069622 3:4.7241601 4:0.69668337 5:1.0238081 6:4.6944344 7:0.53422367 8:-0.33494722 
951.45852697397186 1:-2.959002 2:-4.1667078 3:8.688437 4:5.7809024 5:7.1244091 6:12.69846 7:-0.32263395 8:8.0509951 
30950.178352584197 1:-3.2559685 2:-4.1121088 3:3.057237 4:0.81413717 5:1.3318491 6:1.7843897 7:-0.29968903 8:2.3676038 
6529.5185427296801 1:-4.7471858 2:-3.7898411 3:3.1120949 4:2.7101476 5:2.0860294 6:7.7083548 7:1.8298981 8:2.0377062 
50000 1:-2.0779568 2:-1.5153233 3:2.2604923 4:2.3644033 5:0.39164592 6:0.38222428 7:0.45429203 8:-0.35234453 
50000 1:-3.624779 2:-2.8017309 3:1.4599746 4:0.89767826 5:-0.081293245 6:0.87723036 7:0.42734633 8:0.58717643 
2152.1348545538062 1:-0.86456203 2:-1.3408727 3:8.688437 4:5.7809024 5:3.1214512 6:6.0064354 7:5.1312685 8:4.2712264 
17109.203756245326 1:-3.6189106 2:-2.9921618 3:2.4201317 4:1.8464071 5:1.68813 6:2.7782143 7:5.3679118 8:7.7928193 
3298.0640008860728 1:-3.861108 2:-4.6607629 3:3.4461763 4:1.0693097 5:1.0588055 6:0.51960871 7:0.79217657 8:1.3147198 
-10000 1:-0.85067993 2:-0.97123997 3:1.1531772 4:1.2494203 5:-0.25722623 6:0.92970603 7:-0.48157103 8:0.017106325 
-10000 1:-0.87913241 2:-0.71306983 3:0.89078703 4:1.4131939 5:0.24030579 6:1.0832119 7:0.23742096 8:-0.29402436 
-10000 1:-0.80592358 2:-1.0158227 3:1.3041101 4:0.99879729 5:0.66090616 6:2.3138983 7:1.6148307 8:-0.29882858 
-10000 1:-0.77441567 2:-0.93663776 3:1.8550085 4:0.62740963 5:1.2801427 6:2.7622161 7:-0.12799877 8:2.1424042 
-10000 1:-0.77144399 2:-0.75232708 3:-0.27544762 4:1.5174127 5:-0.38775724 6:-0.25381508 7:0.6380056 8:0.049431765 
-2830.7382349489935 1:-0.75805222 2:-1.5880564 3:6.1159131 4:2.8424865 5:1.8766747 6:1.9964556 7:-0.40691841 8:-0.40756739 
-10000 1:-0.75079147 2:-0.426288 3:0.68586887 4:0.43468625 5:0.0050955412 6:0.43185407 7:-0.48470122 8:1.5673281 
-10000 1:-0.97123783 2:-0.65584646 3:1.8730049 4:1.4644757 5:0.96674102 6:1.9502997 7:0.33619139 8:2.8688249 
-10000 1:-0.97369375 2:-1.5587797 3:0.39909827 4:1.2667897 5:1.3236516 6:-0.30860573 7:-0.085702793 8:-0.32028835 
-10000 1:-0.97550574 2:-1.1104912 3:-0.09839404 4:2.9115562 5:1.5913352 6:0.025310684 7:5.7743223 8:7.1712535 
-9299.7657374121318 1:-0.7364814 2:-0.40166637 3:4.2298508 4:2.566641 5:1.1073624 6:1.2890299 7:-0.033172338 8:1.6701854 
-10000 1:-1.0183487 2:-1.2041289 3:0.52448721 4:2.6373699 5:0.40362753 6:0.43160907 7:3.2526436 8:1.0666449 
-160.43715166262618 1:-0.69208497 2:-1.0572239 3:1.6422536 4:-0.11267261 5:2.4864515 6:6.8441809 7:-0.59793062 8:13.839713 
-4174.2560068013336 1:-1.0232014 2:-0.87342933 3:-0.32653172 4:1.8643906 5:-0.37955852 6:-0.13247028 7:1.3923865 8:0.41241741 
-10000 1:-1.0263689 2:-1.2553618 3:2.2642669 4:2.5827589 5:0.23967384 6:0.35516959 7:2.7046463 8:-0.18968529 
-10000 1:-0.6760287 2:-0.45556469 3:-0.18140496 4:1.6460331 5:-0.52837866 6:0.40516692 7:0.61416918 8:-0.57898064 
-10000 1:-1.0550423 2:-0.79091933 3:1.6181623 4:0.90863758 5:0.57073266 6:2.0539705 7:-0.07177756 8:1.8054137 
-10000 1:-1.0573776 2:-1.2769516 3:0.68732098 4:0.8982986 5:-0.30483583 6:1.3003717 7:0.94262043 8:-0.21029284 
-7255.3566703291153 1:-1.064418 2:-1.1735222 3:2.7280885 4:-0.44911074 5:-0.12227989 6:0.41434426 7:-0.33984432 8:1.0806091 
-10000 1:-0.64762947 2:-0.66183153 3:-0.050791642 4:2.4334724 5:-0.59080662 6:-0.41186875 7:1.2205221 8:-0.62037496 
-10000 1:-0.64127063 2:-0.6112637 3:2.8616068 4:1.074478 5:0.75549498 6:0.31829803 7:1.4546307 8:1.8059512 
-10000 1:-0.63884694 2:-1.1575511 3:0.88672616 4:1.5045915 5:1.3381532 6:0.39993853 7:2.0216344 8:0.31580216 
-5880.0859334223333 1:-1.0915682 2:-1.614673 3:0.17444229 4:0.65387811 5:1.4995833 6:-0.024687478 7:0.19014131 8:-0.42759056 
-2354.4196679231709 1:-0.61701401 2:-0.27657407 3:1.8172743 4:1.2891217 5:0.98313432 6:2.2277092 7:2.2898979 8:-0.53192904 
-10000 1:-0.60631711 2:-0.97922551 3:1.4991574 4:0.6633917 5:-0.52522721 6:1.4949296 7:-0.1433843 8:-0.21424359 
-6683.4153785714252 1:-0.56737756 2:-1.858898 3:0.9009472 4:-0.078553078 5:1.7051559 6:1.5963133 7:1.0034255 8:9.1042382 
-10000 1:-1.1518086 2:-0.97656548 3:0.92619799 4:1.5517396 5:-0.074987543 6:1.0760771 7:0.54865448 8:-0.59312291 
-10000 1:-0.55846524 2:-0.26925353 3:1.2971442 4:-0.62777231 5:0.40930261 6:2.349654 7:-0.62298802 8:2.0044387 
-10000 1:-1.168191 2:-1.7344453 3:0.48095071 4:0.90160804 5:1.4617494 6:-0.292539 7:-0.029916261 8:0.29501439 
-10000 1:-1.2002406 2:-1.2254201 3:-0.20172454 4:1.6059172 5:0.00068434233 6:-0.1541196 7:0.8552559 8:0.14398375 
-10000 1:-1.3093213 2:-0.90936155 3:1.7093038 4:1.8838404 5:0.26931313 6:0.59587135 7:-0.2626355 8:0.064516864 
-10000 1:-1.3112311 2:-1.5095419 3:0.93781026 4:1.9847462 5:0.1904898 6:-0.4405164 7:0.51260429 8:-0.47504607 
-10000 1:-1.3210598 2:-1.8382464 3:0.02060823 4:0.5347713 5:0.99007329 6:-0.027437341 7:0.27342832 8:-0.29204873 
-10000 1:-1.3479084 2:-0.84348764 3:2.3374082 4:3.7101683 5:2.4744706 6:3.8903201 7:4.9477034 8:6.6907517 
-10000 1:-1.3573475 2:-1.3265612 3:0.75843225 4:0.29572875 5:0.31408598 6:2.7162207 7:0.28663783 8:1.0630093 
-10000 1:-1.3866505 2:-1.9467026 3:1.8904195 4:0.98018456 5:3.0785736 6:0.33392823 7:0.6676818 8:-0.49731433 
-5680.855436680944 1:-0.32590944 2:-0.80819874 3:-0.080688598 4:0.81227617 5:-0.020757058 6:0.53622012 7:1.0547549 8:0.08999559 
-867.21974531491287 1:-0.30896901 2:-0.59329759 3:1.9682072 4:10.060518 5:0.19553294 6:0.097120676 7:0.65819172 8:-0.10397895 
-10000 1:-1.467983 2:-1.22143 3:1.8062476 4:0.73369801 5:2.3496147 6:1.6034209 7:0.58217709 8:5.758527 
-6572.5812854972701 1:-0.23028421 2:0.044144946 3:1.118348 4:0.15511342 5:1.0518672 6:2.8262107 7:-0.21485118 8:4.7926287 
-765.41775901283313 1:-0.21852349 2:-3.0599036 3:0.26151911 4:-0.3874891 5:-0.36316522 6:0.39402859 7:-0.094686871 8:1.0948413 
-10000 1:-0.20588446 2:-0.54006972 3:3.2720096 4:1.6079841 5:0.43705021 6:2.0472157 7:0.51243679 8:0.13828086 
-10000 1:-1.5146381 2:-0.97523546 3:0.74566027 4:1.8362724 5:-0.045980194 6:0.54426712 7:0.56062865 8:-0.052482649 
-10000 1:-1.5590037 2:-2.6340534 3:1.3058515 4:-0.17160749 5:-0.24209268 6:2.6708799 7:-0.35845879 8:-0.23054145 
-10000 1:-1.5606769 2:-1.5082118 3:0.92793945 4:1.6125323 5:-0.14056902 6:-0.015318802 7:1.7144856 8:0.71533262 
-10000 1:-1.5867265 2:-1.2653423 3:0.23713866 4:1.2105424 5:0.05301983 6:0.17505815 7:-0.17373415 8:0.22901624 
-10000 1:-1.5908918 2:-1.289964 3:0.54306533 4:1.4214641 5:0.31723742 6:0.58037657 7:0.43830299 8:-0.38377193 
-5789.7280293475978 1:-1.6500918 2:-1.3119201 3:0.67774332 4:0.7328718 5:0.20183997 6:1.3998355 7:1.0076087 8:1.8200049 
-10000 1:-1.6548541 2:-1.1036528 3:0.99353699 4:1.670432 5:-0.092012788 6:0.34634614 7:0.37611526 8:-0.13136482 
-10000 1:-1.6737944 2:-1.6632458 3:1.9049329 4:2.3995572 5:0.1602227 6:1.9276157 7:2.8685536 8:1.0074722 
-10000 1:0.02227476 2:-1.0750411 3:1.038237 4:1.7866457 5:-0.11786869 6:0.12010478 7:-0.28428292 8:-0.55567891 
-10000 1:-1.7975223 2:-2.1609604 3:2.674685 4:2.4363709 5:0.17094092 6:0.86369595 7:1.0388851 8:-0.22007987 
-10000 1:-1.8233293 2:-1.3049172 3:1.3261681 4:-0.14038173 5:0.4830809 6:3.1033484 7:-0.078676794 8:-0.33463298 
-10000 1:-1.8401149 2:-1.3438623 3:1.766772 4:0.5422153 5:0.14004188 6:1.0316343 7:0.13115433 8:-0.10819872 
-10000 1:-1.8518757 2:-2.091091 3:3.8357028 4:2.1113051 5:0.80404708 6:2.0664979 7:0.60465241 8:-0.029945321 
-10000 1:-1.8730477 2:-1.4183813 3:1.3377796 4:1.5649725 5:0.45029207 6:0.7592075 7:1.508382 8:0.011000931 
-5482.8935063920117 1:0.1784691 2:-3.0534194 3:0.54393594 4:-0.50473662 5:0.75297156 6:1.5629952 7:0.084134431 8:0.70871052 
-10000 1:-1.9097184 2:-1.6359642 3:2.3292827 4:0.64684856 5:-0.45964573 6:1.7914287 7:-0.48648383 8:-0.28778403 
-10000 1:-1.9770459 2:-1.5494641 3:0.44379829 4:1.7940951 5:1.2643772 6:-0.097994701 7:0.24253062 8:-0.43158674 
-10000 1:-1.985879 2:-1.4117312 3:0.64871645 4:3.1109095 5:1.2076222 6:-0.35980119 7:0.66393335 8:-0.073045603 
-458.67785447269398 1:-1.990746 2:-1.4017507 3:4.6838092 4:1.7192216 5:2.029906 6:7.6624381 7:2.8434811 8:6.9232705 
-10000 1:-1.9931509 2:-1.4682896 3:2.2085363 4:0.39581109 5:1.7360533 6:4.337412 7:-0.36470552 8:5.035248 
-10000 1:-2.0080608 2:-1.610683 3:0.62781893 4:1.137343 5:0.20562335 6:0.87341789 7:1.5253956 8:-0.54126759 
-10000 1:0.34135515 2:0.34370842 3:1.3258776 4:-0.75949558 5:-0.22191388 6:1.523618 7:-0.51847627 8:1.4045123 
-10000 1:-2.0855086 2:-1.5867263 3:3.5413656 4:3.0579509 5:1.3381532 6:0.62925679 7:1.9338973 8:0.46175865 
-10000 1:-2.1090574 2:-1.5241829 3:1.5357319 4:2.061245 5:1.6036306 6:0.19335822 7:-0.060952754 8:3.0535284 
-10000 1:-2.1170974 2:-1.5421436 3:1.4132441 4:0.58274559 5:0.35317961 6:0.99890213 7:0.46327629 8:-0.054457843 
-10000 1:-2.1230372 2:-1.5953769 3:0.6992226 4:0.68034659 5:0.0088789289 6:0.79812189 7:0.53485546 8:0.60996069 
-10000 1:-2.1272168 2:-2.1928972 3:0.24468626 4:0.83005835 5:1.0033151 6:0.14077359 7:0.15056851 8:1.4602959 
-10000 1:-2.1602966 2:-1.5667652 3:3.9413311 4:0.97935836 5:0.32984734 6:6.3120414 7:0.52272651 8:-0.62468512 
-10000 1:-2.1946347 2:-2.1982227 3:4.9949526 4:5.4136485 5:1.5531868 6:8.065771 7:4.5812709 8:0.88795951 
-10000 1:-2.2497026 2:-3.9328951 3:1.6373184 4:0.14725495 5:0.088966144 6:4.1196661 7:-0.36095734 8:0.59873726 
-10000 1:-2.2712066 2:-1.8295959 3:0.69748114 4:1.0529749 5:-0.19164475 6:0.94059865 7:1.592567 8:-0.28374311 
-10000 1:0.57824558 2:0.76806573 3:2.2828412 4:-0.11949674 5:-0.35181505 6:1.56772 7:-0.032527171 8:0.48299496 
-10000 1:-2.3078409 2:-3.6188316 3:2.4012643 4:0.48390121 5:0.25607128 6:-0.21710691 7:0.032580249 8:-0.057062297 
-10000 1:-2.3170671 2:-2.0378632 3:5.5894066 4:3.3937709 5:1.7726274 6:6.8946631 7:3.1576057 8:3.6286042 
-10000 1:-2.3368061 2:-1.9912854 3:0.93258588 4:0.55172619 5:-0.31650068 6:2.2686118 7:0.35053814 8:0.075472285 
-10000 1:-2.3404938 2:-1.8582075 3:3.9065019 4:-0.16540145 5:-0.23011057 6:3.5016116 7:-0.02636454 8:0.43325022 
-10000 1:-2.3419196 2:-2.3193249 3:0.72940918 4:0.6286503 5:0.22517223 6:-0.12443692 7:-0.24042828 8:-0.19547641 
-10000 1:-2.3632431 2:-1.8029792 3:0.77178598 4:1.6146019 5:1.2006874 6:0.2990451 7:0.20965426 8:-0.46552833 
-10000 1:-2.3632431 2:-1.8029792 3:1.1137016 4:1.583997 5:1.2013193 6:0.25934045 7:-0.41390807 8:-0.032773378 
-10000 1:-2.3671053 2:-1.697183 3:2.0634096 4:1.6969004 5:0.30462338 6:1.1868288 7:-0.36915533 8:0.27665131 
-10000 1:-2.3766644 2:-2.0538343 3:5.3728647 4:2.3462194 5:1.7511868 6:0.1650639 7:-0.2433897 8:0.27876099 
-10000 1:-2.3804399 2:-2.6779712 3:4.9537355 4:0.93882807 5:0.30588726 6:2.8817325 7:-0.50992698 8:0.40999395 
-10000 1:-2.387313 2:-1.8655281 3:2.3484387 4:1.0360173 5:0.58334258 6:0.62773294 7:-0.26629964 8:-0.50333 
-10000 1:-2.3980342 2:-1.8076397 3:3.6406441 4:2.5691332 5:0.31029846 6:0.035876858 7:2.6346407 8:0.5171601 
-10000 1:-2.4013476 2:-2.0591543 3:2.8534812 4:0.14188053 5:0.33363073 6:2.4922665 7:0.24376605 8:0.85904612 
-10000 1:-2.419408 2:-1.8741786 3:1.0672639 4:1.9086537 5:-0.26920833 6:-0.29207602 7:1.3880211 8:-0.41434597 
-10000 1:-2.4719097 2:-1.8828237 3:0.57963599 4:0.91070446 5:-0.052287217 6:0.25408478 7:-0.34178142 8:-0.35530724 
-10000 1:-2.4796057 2:-2.0278826 3:1.987945 4:1.6675389 5:0.68928157 6:-0.11438887 7:1.261287 8:-0.44658166 
-10000 1:-2.4860939 2:-1.8162848 3:1.9571767 4:0.6952346 5:0.22895562 6:0.92518545 7:-0.10308182 8:-0.22591694 
-10000 1:-2.4893922 2:-1.9380521 3:2.793686 4:2.0571275 5:3.6763695 6:3.6398422 7:1.6997753 8:5.2566318 
-10000 1:-2.5131259 2:-1.8748436 3:1.1676906 4:2.8627489 5:0.22517223 6:0.36486404 7:1.0183476 8:-0.29312624 
-6226.9533673532378 1:-2.5478228 2:-1.8595376 3:0.86814805 4:1.2920175 5:0.61487357 6:-0.24259611 7:-0.38778375 8:-0.093651628 
-4989.7808505174617 1:0.86789881 2:0.9730189 3:0.80545548 4:-0.48385214 5:-0.36568885 6:0.5414353 7:-0.21392465 8:0.7418665 
-10000 1:-2.5855061 2:-2.3831984 3:0.86524688 4:1.086473 5:0.71513747 6:0.27949195 7:0.99720678 8:1.0561848 
-10000 1:-2.586803 2:-2.001931 3:1.9722719 4:1.1551241 5:1.5569702 6:0.64812922 7:-0.26206006 8:-0.59083397 
-10000 1:-2.5884297 2:-2.3146644 3:1.2774064 4:2.4156751 5:-0.018232597 6:0.69725513 7:1.5785145 8:0.48699065 
-10000 1:-2.6228258 2:-2.1097222 3:2.4041693 4:2.46904 5:0.97178416 6:0.60504845 7:0.0040697754 8:-0.38440057 
-10000 1:-2.6317727 2:-2.172271 3:3.0084712 4:2.7473776 5:1.0802468 6:2.4177057 7:1.0567 8:0.9256272 
-10000 1:-2.6572829 2:-1.9420476 3:1.664022 4:2.8660537 5:0.52344032 6:-0.0087558052 7:0.2863568 8:-0.44447152 
-10000 1:-2.6703232 2:-2.0817755 3:3.0897266 4:1.2527278 5:0.29642879 6:1.5161692 7:0.55497169 8:-0.55859858 
-10000 1:-2.6946576 2:-2.4976451 3:3.5686662 4:1.1857291 5:0.70252343 6:4.9727017 7:-0.046382833 8:3.3819438 
-10000 1:-2.7588583 2:-2.2248393 3:3.0421597 4:2.2895496 5:2.1780942 6:3.7941661 7:0.79355948 8:2.9483815 
-10000 1:-2.770183 2:-2.0298776 3:4.3703463 4:3.199815 5:2.0582856 6:5.3445258 7:2.8558333 8:5.1760872 
-10000 1:-2.7835995 2:-2.0418532 3:3.175659 4:1.3246893 5:0.086442509 6:0.40181715 7:0.582528 8:-0.25316878 
-10000 1:-2.7850146 2:-2.476354 3:1.4277576 4:1.7560353 5:0.63063906 6:-0.39650996 7:0.90881026 8:-0.20813784 
-10000 1:-2.7877263 2:-2.3139994 3:1.1235724 4:0.89292336 5:0.74351288 6:2.0850426 7:1.6120793 8:1.6974384 
-10000 1:-2.8089583 2:-2.2341549 3:0.96160895 4:1.3768 5:0.91376946 6:0.040424344 7:-0.58056581 8:-0.38184154 
-10000 1:-2.8346333 2:-2.1336788 3:2.1603534 4:1.2353585 5:1.458598 6:0.18505234 7:-0.14422642 8:-0.24041785 
-10000 1:-2.838552 2:-2.4723639 3:1.5862343 4:2.5732507 5:2.7103087 6:0.96619686 7:3.1175986 8:1.0300103 
-10000 1:-2.8485766 2:-2.1882421 3:1.2512845 4:3.6989806 5:1.0064666 6:0.38425325 7:2.9397805 8:1.5301104 
-10000 1:-2.8544456 2:-2.239475 3:1.5682379 4:1.8139512 5:1.0115097 6:0.47550703 7:-0.48755122 8:-0.24041832 
-10000 1:-2.857526 2:-2.2647616 3:1.2623112 4:3.077807 5:0.10977478 6:-0.080757123 7:0.010218228 8:0.48613766 
-501.02778722774605 1:-2.9259085 2:-2.3871939 3:5.7368603 4:0.013260128 5:0.0580671 6:8.7107855 7:-0.54735253 8:-0.62621184 
-10000 1:-2.9355418 2:-2.2015477 3:1.4637465 4:1.2638939 5:0.10157606 6:2.1804357 7:0.66609556 8:1.0682171 
-10000 1:-2.9381722 2:-2.4996456 3:1.5247014 4:0.94999408 5:-0.016340903 6:1.3178955 7:1.3952644 8:-0.30946821 
-10000 1:-2.9432615 2:-3.5110404 3:4.7116802 4:3.2180187 5:3.0974905 6:-0.30511999 7:1.7415235 8:0.21550381 
-10000 1:-2.9572973 2:-2.32531 3:1.7284598 4:1.2101307 5:0.65523108 6:0.0024080685 7:0.37810867 8:0.4470322 
-10000 1:-3.0046166 2:-2.5109562 3:2.099984 4:3.3081703 5:0.26804925 6:2.3329883 7:2.7990811 8:0.12377977 
-10000 1:-3.0158605 2:-2.3958444 3:1.7365854 4:2.6543275 5:0.26237417 6:0.15929169 7:-0.37453238 8:-0.26677263 
-10000 1:-3.0235989 2:-2.253451 3:1.9891047 4:1.7279171 5:0.69748029 6:1.2025143 7:-0.47970348 8:-0.50458759 
-10000 1:-3.0326453 2:-2.4570578 3:1.8776475 4:3.3631606 5:0.95539086 6:0.79365606 7:0.28426488 8:0.13222085 
-10000 1:-3.0573454 2:-2.3366206 3:1.6924671 4:1.6795311 5:0.67477996 6:-0.24989436 7:0.34910617 8:-0.010818432 
-10000 1:-3.0766654 2:-2.3838634 3:3.2818957 4:-0.20179798 5:-0.15381088 6:3.1339835 7:-0.40308518 8:-0.40451441 
-10000 1:-3.0795835 2:-2.3446061 3:0.37529958 4:0.89292336 5:0.57955919 6:0.002708553 7:-0.5719747 8:0.046513324 
-3581.5677945556558 1:1.3970898 2:1.455422 3:-0.78339128 4:-0.96690072 5:-0.91618862 6:-0.42243458 7:-0.6179767 8:-0.59994724 
-2321.6252560032322 1:-3.1409189 2:-2.41048 3:2.1086914 4:1.9285098 5:0.93710173 6:-0.27178838 7:2.8221868 8:-0.43836538 
-7573.7852452534262 1:-3.147292 2:-2.5661845 3:2.6955825 4:0.33418945 5:0.27183264 6:5.7922983 7:1.2223881 8:0.090376612 
-8541.2892339761711 1:-3.1518816 2:-3.0053403 3:3.9152092 4:2.4099052 5:1.0537589 6:6.2865824 7:2.3966143 8:3.9612861 
-10000 1:-3.1806539 2:-2.7112379 3:2.9945547 4:2.3631499 5:1.5210238 6:0.67517097 7:1.2768684 8:1.9369586 
-10000 1:-3.2639689 2:-2.5581989 3:8.9836191 4:2.0079071 5:1.9315379 6:4.6556424 7:-0.05743042 8:3.7860547 
-10000 1:-3.2699596 2:-3.3746321 3:1.1200894 4:0.17331169 5:-0.15065943 6:0.78480609 7:-0.42979909 8:-0.24562613 
-10000 1:-3.2763875 2:-2.6333884 3:0.78339445 4:1.0769594 5:1.1269072 6:-0.11414277 7:0.38175823 8:1.0412789 
-10000 1:-3.3187215 2:-3.6168366 3:2.0239377 4:1.1526428 5:0.31849718 6:1.6206582 7:-0.38889286 8:0.86636318 
-6026.6336513014703 1:-3.3940461 2:-2.5894707 3:3.0485476 4:-0.06986732 5:-0.134262 6:5.3270695 7:-0.30837158 8:-0.063482325 
-10000 1:-3.4287118 2:-2.6733107 3:1.7139464 4:1.576553 5:1.0688966 6:0.29403401 7:2.2843391 8:-0.3312439 
-10000 1:-3.4552019 2:-2.8170341 3:2.0692157 4:1.2576905 5:1.2750954 6:-0.22786387 7:-0.25251485 8:-0.34242216 
-10000 1:-3.4698635 2:-3.117127 3:4.6449115 4:3.0157736 5:0.57829944 6:2.9311877 7:1.4831558 8:1.9217396 
-10000 1:-3.5683537 2:-2.7544907 3:3.1843663 4:1.8552888 5:1.4201321 6:1.6008063 7:0.51551096 8:-0.13356509 
-10000 1:-3.5763395 2:-3.8949679 3:2.4552534 4:0.25230267 5:-0.11723675 6:2.132589 7:1.005643 8:1.2851548 
-10000 1:-3.7175791 2:-3.8803323 3:2.758275 4:0.12988561 5:0.22643199 6:-0.12269484 7:-0.45363529 8:-0.61575078 
-10000 1:-3.7194833 2:-3.3513459 3:5.3769332 4:0.34452925 5:0.87971897 6:5.9622515 7:-0.39209354 8:0.46840323 
-10000 1:-3.7649761 2:-2.967413 3:4.1596221 4:1.9413228 5:1.2391532 6:-0.095572488 7:0.7199586 8:0.20872416 
-10000 1:-3.805346 2:-3.5502977 3:6.1530617 4:2.737436 5:1.4863414 6:-0.14799108 7:0.13292303 8:1.2170485 
-10000 1:-3.8733475 2:-2.9887042 3:3.0578252 4:-0.18773617 5:0.78702184 6:4.1948265 7:-0.4183301 8:0.69391691 
-10000 1:-3.9373579 2:-3.522351 3:6.8961101 4:3.2200775 5:1.7455117 6:0.5848148 7:-0.60589037 8:-0.20212188 
-10000 1:-3.9661556 2:-3.0432675 3:2.527235 4:-0.077311327 5:-0.016340903 6:2.7570962 7:-0.19675636 8:-0.25276498 
-10000 1:-3.979958 2:-3.6407878 3:0.2353972 4:0.17661923 5:-0.15255112 6:0.25465656 7:0.057764402 8:0.36240357 
-10000 1:-3.9848253 2:-3.758565 3:2.6694606 4:3.4462962 5:2.3496147 6:0.14706452 7:0.017012204 8:2.9499975 
-10000 1:-4.0298711 2:-4.6382099 3:4.0446781 4:2.9500291 5:2.8912876 6:4.1405505 7:1.5890022 8:3.7639212 
-10000 1:-4.0614595 2:-3.1464037 3:1.1415687 4:0.87141755 5:0.18796617 6:-0.22492269 7:-0.50869192 8:-0.30197051 
-10000 1:-4.0614595 2:-4.1904003 3:1.9635646 4:0.87141755 5:-0.12984667 6:0.23436922 7:0.27245938 8:0.3787012 
-10000 1:-4.0918886 2:-3.2116126 3:2.2990961 4:1.4528952 5:1.3942762 6:-0.32546205 7:0.35122574 8:-0.60515544 
-10000 1:-4.1331771 2:-3.2515348 3:3.1495371 4:2.5310734 5:2.2007945 6:-0.44563589 7:-0.43646755 8:-0.029944054 
-9827.9128061665087 1:-4.2324925 2:-4.6288949 3:11.885584 4:6.5489136 5:5.9092704 6:3.0063226 7:-0.15256582 8:1.88012 
-10000 1:-4.2459225 2:-4.2296602 3:4.1700784 4:2.1464393 5:0.76179788 6:0.80827964 7:0.41223381 8:1.0119165 
-10000 1:-4.4397681 2:-4.7506611 3:1.2036795 4:2.7916137 5:3.3162868 6:1.0012718 7:1.442839 8:4.8280946 
-7163.8565634287843 1:-4.5653521 2:-4.4665392 3:3.2006402 4:-0.14265768 5:0.14319333 6:1.1115336 7:-0.61912784 8:0.69275013 
-10000 1:-4.5795536 2:-4.6528488 3:9.8102804 4:0.72335821 5:1.5979555 6:6.7930376 7:-0.49980592 8:0.12270233 
-10000 1:-4.6147154 2:-4.6947682 3:5.3479215 4:1.9003645 5:1.3967999 6:-0.00042526376 7:-0.13344583 8:-0.55626305 
-10000 1:-4.6380942 2:-3.9375556 3:2.951003 4:2.0108056 5:1.432742 6:-0.22976963 7:1.0882702 8:0.4178513 
-10000 1:-4.7585519 2:-4.7426765 3:3.619161 4:0.27256782 5:-0.55423249 6:3.2756709 7:-0.36996955 8:-0.55078591 
-10000 1:-5.025691 2:-4.7287033 3:4.6228581 4:1.2390805 5:-0.41045756 6:2.5299004 7:-0.4571307 8:-0.25168731 
-10000 1:-5.1301221 2:-4.7200531 3:2.8552227 4:1.4715052 5:0.41056237 6:-0.25544976 7:-0.45561443 8:-0.50966087 
-10000 1:-5.1625676 2:-4.6275637 3:2.0657328 4:0.71549975 5:0.88728575 6:-0.42905196 7:0.12944132 8:-0.56932788 
-10000 1:-5.2289259 2:-4.1178763 3:5.1627488 4:3.1857559 5:2.8755221 6:7.2355281 7:2.4261517 8:7.0338497 
-10000 1:-5.3368706 2:-4.7240455 3:2.2985143 4:0.77464005 5:-0.14561216 6:1.3950427 7:-0.55417484 8:-0.53107629 
-10000 1:-5.3389285 2:-4.4991431 3:8.0937253 4:2.9814521 5:2.223499 6:0.85838503 7:-0.29705722 8:0.37156291 
-2551.3856047841882 1:-5.5208628 2:-4.6774682 3:1.250121 4:1.2080611 5:0.99953176 6:0.4501001 7:0.97037983 8:2.2572485 
-7125.9621158668306 1:-5.5557758 2:-4.7420111 3:6.6064498 4:0.8193068 5:0.66279785 6:5.3623902 7:1.5622587 8:1.2631564 
-1113.4553360995706 1:-5.6167323 2:-4.5517093 3:10.586409 4:0.7882901 5:-0.17209587 6:8.5963275 7:-0.25589777 8:-0.57103492 
-10000 1:-5.6198284 2:-4.7153954 3:1.0126931 4:2.1228721 5:1.1451963 6:-0.17329107 7:1.0536669 8:2.3417434 
-10000 1:-5.6415979 2:-4.7293686 3:1.9647243 4:2.2320671 5:0.75107966 6:0.77015479 7:3.4708205 8:1.5650389 
-10000 1:-5.6626031 2:-4.6768027 3:1.1972955 4:0.75975204 5:0.87530364 6:1.9254095 7:0.03392832 8:2.5774487 
-1148.9549650017025 1:-5.8641094 2:-4.7499957 3:1.3702856 4:2.1228721 5:1.4062583 6:1.0861798 7:3.4351911 8:2.19188 
-10000 1:-5.9014305 2:-4.7546535 3:5.235297 4:0.01243121 5:-0.19101694 6:5.0428808 7:-0.43677588 8:-0.43118231 
-10000 1:-0.65852982 2:-0.76691664 3:0.78368495 4:1.1251414 5:0.84882055 6:2.3088334 7:0.83914029 8:6.2008439 
-10000 1:-0.78336913 2:-0.52987668 3:1.6689567 4:-0.4722714 5:-0.0059382797 6:1.5749363 7:-0.43139234 8:1.4034797 
-1157.9156507165878 1:-1.5746288 2:-1.4354223 3:0.58137859 4:2.599311 5:0.028113367 6:1.721457 7:6.2315638 8:-0.45464058 
-10000 1:-1.7568139 2:-1.2090358 3:1.4498158 4:0.3046193 5:0.51051142 6:1.0951801 7:-0.54766101 8:0.66504896 
-10000 1:-2.2110625 2:-1.6911057 3:0.64000972 4:0.75375593 5:0.041040368 6:-0.012201116 7:-0.43229778 8:-0.13334072 
-10000 1:-0.89476977 2:-1.2409962 3:0.99179641 4:0.40015397 5:0.54330186 6:3.5948551 7:-0.41097426 8:-0.52095231 
-6597.9430576747236 1:-0.20181199 2:-0.63241612 3:0.39300438 4:1.6683654 5:1.3668467 6:3.3084175 7:6.4461747 8:9.7978177 
-18.824233726366185 1:-0.11294491 2:-0.041148347 3:1.4846462 4:-0.64018071 5:-0.22349035 6:2.3327838 7:-0.50334344 8:1.9612929 
-10000 1:-1.3350708 2:-1.1650903 3:1.7075604 4:2.5769781 5:0.12648475 6:0.94800579 7:2.2864097 8:1.4469841 
-10000 1:-0.98245454 2:-0.71098559 3:1.3641912 4:2.3832205 5:0.48150452 6:1.2862384 7:1.0921167 8:-0.21154996 
-10000 1:-1.804824 2:-1.3235607 3:0.71895852 4:1.0101692 5:-0.12953301 6:1.0100807 7:0.62929515 8:0.060229383 
