svm_type c_svc
kernel_type linear
nr_class 2
total_sv 31
rho 0.48223290261898949
label 1 -1
nr_sv 15 16
SV
1 1:0.5093634 2:0.5677469 
1 1:0.10432409 2:0.24584216 
1 1:0.48242385 2:0.76630695 
1 1:0.02026533 2:0.35866958 
1 1:0.20977656 2:0.43154728 
1 1:0.61390682 2:0.74423187 
0.77259801470654432 1:0.065642638 2:0.53322651 
1 1:0.27028341 2:0.3875795 
1 1:0.27138935 2:0.650645 
1 1:0.37571704 2:0.59212897 
1 1:0.50467836 2:0.56861778 
1 1:0.1867027 2:0.29000345 
1 1:0.36419714 2:0.39084679 
1 1:0.77167387 2:0.90743535 
1 1:0.20616113 2:0.48047455 
-1 1:0.70939083 2:0.58305026 
-1 1:0.33586643 2:0.22697403 
-0.76285538101121364 1:0.77540095 2:0.3396151 
-1 1:0.49945218 2:0.491944 
-1 1:0.07765965 2:0.011490322 
-1 1:0.34267315 2:0.13768301 
-1 1:0.14767566 2:0.12830103 
-1 1:0.77295935 2:0.62628525 
-1 1:0.31769558 2:0.21632019 
-1 1:0.7755268 2:0.52767677 
-0.0097426336953306998 1:0.28231999 2:0.01474868 
-1 1:0.40816827 2:0.35899317 
-1 1:0.87687318 2:0.42967412 
-1 1:0.082313476 2:0.058590774 
-1 1:0.4162334 2:0.23280899 
-1 1:0.57715111 2:0.48020329 
