svm_type c_svc
kernel_type polynomial
degree 2
gamma 0.5
coef0 0
nr_class 2
total_sv 30
rho 0.33951773116132244
label 1 -1
nr_sv 15 15
SV
1 1:0.8637681 2:0.94735837 
1 1:0.98729476 2:0.99414973 
1 1:0.04827953 2:0.92283916 
1 1:0.050007668 2:0.11768439 
1 1:0.18348025 2:0.43554675 
1 1:0.5166719 2:0.74161463 
1 1:0.64625809 2:0.92302637 
1 1:0.41732232 2:0.81198207 
1 1:0.39469198 2:0.92317737 
1 1:0.17524638 2:0.59803409 
1 1:0.13616922 2:0.95950342 
1 1:0.50545581 2:0.52769299 
1 1:0.021332346 2:0.40837541 
1 1:0.49131903 2:0.8901834 
1 1:0.35452659 2:0.87167024 
-1 1:0.83634378 2:0.3632185 
-1 1:0.72943204 2:0.62210361 
-1 1:0.95916064 2:0.58176389 
-1 1:0.35562296 2:0.16432569 
-1 1:0.78449038 2:0.29025308 
-1 1:0.43973693 2:0.10733822 
-1 1:0.15668291 2:0.017530848 
-1 1:0.6008714 2:0.39309866 
-1 1:0.17612891 2:0.1077869 
-1 1:0.84016515 2:0.5627257 
-1 1:0.96536828 2:0.88107667 
-1 1:0.60517764 2:0.3008299 
-1 1:0.86479172 2:0.70463551 
-1 1:0.69245175 2:0.61071484 
-1 1:0.96683125 2:0.59093729 
